Language model created by QuickLM on Fri Aug  5 00:28:34 EDT 2016
Copyright (c) 1996-2010 Carnegie Mellon University and Alexander I. Rudnicky

The model is in standard ARPA format, designed by Doug Paul while he was at MITRE.

The code that was used to produce this language model is available in Open Source.
Please visit http://www.speech.cs.cmu.edu/tools/ for more information

The (fixed) discount mass is 0.5. The backoffs are computed using the ratio method.
This model based on a corpus of 20 sentences and 21 words

\data\
ngram 1=21
ngram 2=38
ngram 3=19

\1-grams:
-0.7782 </s> -0.3010
-0.7782 <s> -0.2218
-1.7782 倒退 -0.2218
-2.0792 停 -0.2218
-2.0792 停止 -0.2218
-2.0792 关闭语音 -0.2218
-2.0792 减速 -0.2218
-2.0792 前进 -0.2218
-2.0792 加速 -0.2218
-2.0792 半速 -0.2218
-2.0792 右转 -0.2218
-2.0792 后退 -0.2218
-2.0792 向前 -0.2218
-2.0792 向右转 -0.2218
-2.0792 向后 -0.2218
-2.0792 向左转 -0.2218
-2.0792 左转 -0.2218
-2.0792 开启语音 -0.2218
-2.0792 暂停 -0.2218
-2.0792 重启语音 -0.2218
-2.0792 ﻿全速 -0.2218

\2-grams:
-1.3010 <s> 倒退 0.0000
-1.6021 <s> 停 0.0000
-1.6021 <s> 停止 0.0000
-1.6021 <s> 关闭语音 0.0000
-1.6021 <s> 减速 0.0000
-1.6021 <s> 前进 0.0000
-1.6021 <s> 加速 0.0000
-1.6021 <s> 半速 0.0000
-1.6021 <s> 右转 0.0000
-1.6021 <s> 后退 0.0000
-1.6021 <s> 向前 0.0000
-1.6021 <s> 向右转 0.0000
-1.6021 <s> 向后 0.0000
-1.6021 <s> 向左转 0.0000
-1.6021 <s> 左转 0.0000
-1.6021 <s> 开启语音 0.0000
-1.6021 <s> 暂停 0.0000
-1.6021 <s> 重启语音 0.0000
-1.6021 <s> ﻿全速 0.0000
-0.3010 倒退 </s> -0.3010
-0.3010 停 </s> -0.3010
-0.3010 停止 </s> -0.3010
-0.3010 关闭语音 </s> -0.3010
-0.3010 减速 </s> -0.3010
-0.3010 前进 </s> -0.3010
-0.3010 加速 </s> -0.3010
-0.3010 半速 </s> -0.3010
-0.3010 右转 </s> -0.3010
-0.3010 后退 </s> -0.3010
-0.3010 向前 </s> -0.3010
-0.3010 向右转 </s> -0.3010
-0.3010 向后 </s> -0.3010
-0.3010 向左转 </s> -0.3010
-0.3010 左转 </s> -0.3010
-0.3010 开启语音 </s> -0.3010
-0.3010 暂停 </s> -0.3010
-0.3010 重启语音 </s> -0.3010
-0.3010 ﻿全速 </s> -0.3010

\3-grams:
-0.3010 <s> 倒退 </s>
-0.3010 <s> 停 </s>
-0.3010 <s> 停止 </s>
-0.3010 <s> 关闭语音 </s>
-0.3010 <s> 减速 </s>
-0.3010 <s> 前进 </s>
-0.3010 <s> 加速 </s>
-0.3010 <s> 半速 </s>
-0.3010 <s> 右转 </s>
-0.3010 <s> 后退 </s>
-0.3010 <s> 向前 </s>
-0.3010 <s> 向右转 </s>
-0.3010 <s> 向后 </s>
-0.3010 <s> 向左转 </s>
-0.3010 <s> 左转 </s>
-0.3010 <s> 开启语音 </s>
-0.3010 <s> 暂停 </s>
-0.3010 <s> 重启语音 </s>
-0.3010 <s> ﻿全速 </s>

\end\
